{"arquitectura": {"n_inputs": 8, "n_hidden": 16, "n_outputs": 4, "lr": 0.1}, "pesos": {"w1": [[-0.3909303781164368, -1.6197624645868471, -1.033056790351572, -1.1366939507921805, 1.340592648621621, 0.6379337680495994, 0.6121873679233907, -0.9369019537094486], [0.6097899777019439, -0.17445922279244075, -1.3862784192872273, -0.8128437926876662, -1.9773637489148084, -2.456314755803648, -0.35916162427774256, -0.3361829652288629], [-0.9555083961100616, -0.21785827243959427, 0.992027230910231, -0.6138361630893002, 1.6172868450118247, 1.7750934488772068, 0.30464390965245136, -0.5054585177764621], [2.0023762168926904, 0.7611391627043781, -1.375751967808876, -1.3678109009022434, 1.119373788931167, 0.07059346440087484, 0.8322467867645567, 0.09198306967086468], [-0.018055128098995774, 0.855720216950358, 0.13902130396889642, 0.486033812098647, 0.5039906669834505, 0.4641733927581347, 0.8297370774818283, 0.3031906483227441], [-1.114181081777944, -2.43167598689633, -0.38486636540445945, -0.26188698950334793, -1.0465800174896325, -0.5812451153223885, -1.2549068708793742, -0.08246002581552865], [2.375822831584116, 1.8341183009953617, 0.9466941007449498, 0.6253462280541445, 0.25307839670595006, 2.798764094543889, 1.6234850196564443, 0.6546640791990843], [0.1312154897534649, 1.2471917892579256, -1.8121386838726217, -1.3800327878811811, 1.5276777519657911, -0.31031310099567944, 0.071456837883977, -0.25713255991107714], [3.0359792658462577, 2.9022752485591288, -0.7998381131108603, -1.1937337692310375, -0.8760752465428403, -1.2294338477486995, -0.13128179659933614, 0.6323951064657942], [1.8943716945850106, 0.7709922032366812, -0.03412127635025108, -0.5537348048186844, 1.1787624175810842, -0.07762766366518085, 0.0905512185349083, -0.8814578157593602], [-0.6977994899346864, -1.2950525412151332, 0.710088842224678, 1.3365626289825634, -1.588167882133641, -1.407410512322261, 0.3880217077424355, 0.3729444499320212], [-1.5220975429818933, -1.609683616480011, -1.5445441139287943, -0.5089502912239203, 0.6172389354809054, -0.886442234275765, -1.379714093525993, -0.3940406671232574], [1.9933507270679545, 1.0593366567859972, 1.675803899091211, 1.4552065483329677, -1.6324657287178015, 0.5196630099809922, 0.6906268139251095, 0.1851409776776623], [-2.0206176001492486, -1.272344382894713, -0.8285165186441035, -0.18209036449763785, 0.6756696703684484, 1.6242332469164025, 0.4603295340496391, -0.3568054660184998], [-0.8519951290611963, -1.495863594101521, 1.3568868895312183, 1.272668350515112, -0.986999382362563, 0.2256412353137775, -0.20012378568781852, -0.3081869495043993], [0.024997628682332445, -0.4212659112287168, 1.2496723885034886, 0.7531267756327205, -1.6766032274900826, -0.33701547449424796, -0.8224473111237599, 0.9941378288691299]], "b1": [0.5981216853505401, 1.9363152419293184, -0.7629323776901099, -1.3668622264688761, 0.7299605853734323, 2.4848302621240888, -3.346906316455036, 0.6157458934067765, -4.096842514524468, -1.3351894057020137, 1.4443588874060527, 2.3128321283131466, -2.178959431235772, 1.7314991714384396, 0.7218801644177033, 1.0818578581987641], "w2": [[1.4274809887474298, -2.674715628950046, 1.6826591007946297, 1.414867456158522, -0.7985364250092168, -1.4503694204281208, 1.4591553623660556, 1.4752213145460051, -2.1969877591770106, 0.3850687286096006, -2.6246912311170933, -0.20597383799778846, -2.2310569082197134, 1.716513523567757, -1.4306882547855104, -2.9332441661673947], [0.04749321738995379, 3.4826642487735864, -1.5948935100635464, -0.7484900510747685, -0.8568181803207217, 2.6929969773085434, -5.796683849578127, 0.8632051489431295, -3.341941162231379, -1.6429636854482552, 1.8254462360400736, 3.6026188879932697, -3.7514144928791495, 0.9525308865428297, 0.45003633574500324, -0.1572011101440331], [-1.7286061937094253, -1.9631795659149651, -0.00327931292493403, -2.227477846939584, 0.45018840084508405, 0.20605791458378556, 2.094342427586334, -3.150722401831012, -1.8518615655639352, -2.097335978872849, 1.982549791567849, -1.3272602576932775, 0.8224929399444858, 0.33495055631216714, 2.046754576717575, 0.47100106490953814], [-2.641091626030512, 1.4155272718490786, -1.9458114606855075, 2.0930987789760307, -0.4623936314425492, -3.0808786999051003, 1.29135482605461, 0.6121472347286049, 5.028852584227119, 1.6209876553876812, -0.6883946274539193, -2.6240530754616844, 0.9852772252434018, -3.6246713795966423, -2.37976884188735, -1.3952549289262939]], "b2": [-0.7855239385946863, 0.8989687734364432, -0.7034375910030976, -0.7173552438530606]}}