{"arquitectura": {"n_inputs": 8, "n_hidden": 16, "n_outputs": 4, "lr": 0.1}, "pesos": {"w1": [[0.4560825737310294, -1.0219914590646593, -0.8861133372828868, -0.98975049772348, 1.3000867870792507, 0.7443713595759298, 0.7601108519519999, -0.7602219633166216], [0.3736503378773239, 0.08275557423789759, -1.306049632405214, -0.7326150058057032, -1.9683373355629836, -2.3670595555698304, -0.34045494835552415, -0.3899302082090335], [-1.0460171359362553, -0.22469538848227708, 0.8896060651933632, -0.7162573288061681, 1.5858902657417882, 1.6412757038903394, 0.08777533344977838, -0.3222385864727186], [2.18712222180361, 0.5057665183154695, -1.3234977516928916, -1.3155566847862592, 1.1744159139838692, 0.17788980556953113, 0.8188289483514701, 0.236678882505444], [-0.2151110380227525, 0.8068393853122493, 0.04749151491244259, 0.39450402304218934, 0.5245887333703116, 0.39324167008852473, 0.7722257506331225, 0.2823631966876567], [-0.8275745904743111, -1.5258126830433196, 0.19141317256190743, 0.3143925484630225, -1.2353005980447584, -0.19368615791114085, -0.7785408528380489, -0.09210119299157157], [2.8290581202707377, 0.35482120074332263, 0.7123153994630641, 0.3909675267722873, 0.5479672638824699, 2.8592742604385326, 1.4816627025858191, 0.8263190449455611], [-1.0532278199101803, 0.90577768368517, -1.8496895767676915, -1.4175836807762496, 1.5052222834267748, -0.37031946242977104, -0.05454925301083807, -0.2971786208922101], [3.352435536231777, 1.4104296470228397, -0.7087934681768777, -1.1026891242969594, -0.6311867958534785, -0.8935007521253242, -0.3497591315122496, 0.7396456280065615], [3.0167394479295737, 0.1883324762461309, -0.0774438455748756, -0.5970573740433168, 1.590074514334277, 0.2903618638633458, -0.027957290468281878, -0.581261788704708], [-0.26082501114651885, -0.7493670499280128, 0.8277690885998112, 1.4542428753576768, -1.7214885576787307, -1.4230509414922368, 0.5211002895139027, 0.21338866441921492], [-2.332145736770553, -0.5655734136341294, -1.3099984361630304, -0.274404613458129, 0.3350009866724567, -0.9341345053184096, -1.257381954011703, -0.5363701634754144], [2.748831053525978, 0.20830945057683886, 1.48025696334324, 1.2596596125850001, -1.2963678120617732, 0.6602139908889972, 0.5533968392739104, 0.36053362712891424], [-2.9159018468186977, -0.48909146552822913, -0.9591045465111231, -0.31267839236466766, 0.3784713184390998, 1.1964468671199813, 0.5104634313297044, -0.5188401528210477], [-0.9973613851619805, -1.111302922301857, 1.4268964823478627, 1.3426779433317562, -1.0762715503945082, 0.20637866009849315, -0.06976087275141515, -0.35719927968354276], [0.49843023296184297, -0.09139664636910731, 1.1948925321026105, 0.6983469192317803, -1.6044323105277274, -0.31962441393278423, -0.853099982295502, 1.0215811454737516]], "b1": [-0.11837253282932585, 1.968515190097279, -0.84023537547224, -0.776730292046028, 0.9290414527876515, 1.2562788443223616, -1.855344987618633, 0.8019586194315012, -1.8443991245537779, -0.9937189716051248, 0.8624259405929446, 1.288243348588671, -1.3267235905582302, 0.9072118739444919, -0.14597317408420338, 0.8981788447910568], "w2": [[1.1279169619338445, -2.4967963887122564, 1.7345425197114523, 1.2359182826044908, -0.611159147940275, -1.6573751194087702, 1.7057911921906441, 1.6459693250758034, -1.7254083674217853, 0.3501304228666416, -2.6445705232302896, -0.2591924051974367, -2.146856020052677, 1.574475720161571, -1.396843020216479, -2.8730878947642946], [-1.4731447795541281, 3.158489277328504, -1.3503414848625779, -1.0961697358944402, -0.3645879033404297, 0.9444957994283912, -4.953739602368894, 1.382653576077128, -1.886541053668883, -2.6462369898690024, 1.280761456853343, 2.8153982508425406, -3.264915139348265, 1.2952941509320512, 0.24807027411484966, -0.45624167611016847], [-1.7575444467292303, -2.0703145875291695, -0.054559862047692115, -2.0107398028826333, 0.3259392256150414, 0.2512085731471916, 2.250825220605798, -3.3019210859198953, -1.8491725108213515, -1.898510492717502, 1.9134184017315228, -1.5576294840095906, 1.156992452329454, 0.13268395569803895, 2.119253384280987, 0.3604536454128309], [-1.310453581489476, 1.6305347627823785, -2.026838561988228, 2.1811498156159117, -0.6184663031561524, -1.6464976307401642, 1.1018572316598012, -0.15388988731285924, 4.129880803769902, 2.2672695802839287, 0.23181714878521073, -2.271566388228415, 1.2079999041151328, -3.5276522244572432, -1.7643060899656275, -0.7237579341640148]], "b2": [-0.6312963559316089, 0.8470302049804713, -0.8311879150045528, -0.44741620194591]}}